<?xml version="1.0"?>
<!-- DTD for the XMLBIF 0.3 format -->
<!DOCTYPE BIF [
	<!ELEMENT BIF ( NETWORK )*>
	      <!ATTLIST BIF VERSION CDATA #REQUIRED>
	<!ELEMENT NETWORK ( NAME, ( PROPERTY | VARIABLE | DEFINITION )* )>
	<!ELEMENT NAME (#PCDATA)>
	<!ELEMENT VARIABLE ( NAME, ( OUTCOME |  PROPERTY )* ) >
	      <!ATTLIST VARIABLE TYPE (nature|decision|utility) "nature">
	<!ELEMENT OUTCOME (#PCDATA)>
	<!ELEMENT DEFINITION ( FOR | GIVEN | TABLE | PROPERTY )* >
	<!ELEMENT FOR (#PCDATA)>
	<!ELEMENT GIVEN (#PCDATA)>
	<!ELEMENT TABLE (#PCDATA)>
	<!ELEMENT PROPERTY (#PCDATA)>
]>


<BIF VERSION="0.3">
<NETWORK>
<NAME>secom-weka.filters.supervised.attribute.AttributeSelection-Eweka.attributeSelection.CfsSubsetEval-Sweka.attributeSelection.BestFirst -D 1 -N 5-weka.filters.supervised.attribute.Discretize-Rfirst-last-weka.filters.unsupervised.attribute.ReplaceMissingValues</NAME>
<VARIABLE TYPE="nature">
	<NAME>x34</NAME>
	<OUTCOME>&apos;(-inf-8.51975]&apos;</OUTCOME>
	<OUTCOME>&apos;(8.51975-inf)&apos;</OUTCOME>
	<PROPERTY>position = (0,96)</PROPERTY>
</VARIABLE>
<VARIABLE TYPE="nature">
	<NAME>x39</NAME>
	<OUTCOME>&apos;All&apos;</OUTCOME>
	<PROPERTY>position = (44,96)</PROPERTY>
</VARIABLE>
<VARIABLE TYPE="nature">
	<NAME>x60</NAME>
	<OUTCOME>&apos;(-inf-4.97225]&apos;</OUTCOME>
	<OUTCOME>&apos;(4.97225-inf)&apos;</OUTCOME>
	<PROPERTY>position = (88,96)</PROPERTY>
</VARIABLE>
<VARIABLE TYPE="nature">
	<NAME>x65</NAME>
	<OUTCOME>&apos;(-inf-30.7359]&apos;</OUTCOME>
	<OUTCOME>&apos;(30.7359-inf)&apos;</OUTCOME>
	<PROPERTY>position = (132,96)</PROPERTY>
</VARIABLE>
<VARIABLE TYPE="nature">
	<NAME>x104</NAME>
	<OUTCOME>&apos;(-inf--0.00865]&apos;</OUTCOME>
	<OUTCOME>&apos;(-0.00865-inf)&apos;</OUTCOME>
	<PROPERTY>position = (176,96)</PROPERTY>
</VARIABLE>
<VARIABLE TYPE="nature">
	<NAME>x107</NAME>
	<OUTCOME>&apos;All&apos;</OUTCOME>
	<PROPERTY>position = (220,96)</PROPERTY>
</VARIABLE>
<VARIABLE TYPE="nature">
	<NAME>x122</NAME>
	<OUTCOME>&apos;All&apos;</OUTCOME>
	<PROPERTY>position = (264,96)</PROPERTY>
</VARIABLE>
<VARIABLE TYPE="nature">
	<NAME>x131</NAME>
	<OUTCOME>&apos;(-inf-0.6753]&apos;</OUTCOME>
	<OUTCOME>&apos;(0.6753-inf)&apos;</OUTCOME>
	<PROPERTY>position = (308,96)</PROPERTY>
</VARIABLE>
<VARIABLE TYPE="nature">
	<NAME>x132</NAME>
	<OUTCOME>&apos;All&apos;</OUTCOME>
	<PROPERTY>position = (352,96)</PROPERTY>
</VARIABLE>
<VARIABLE TYPE="nature">
	<NAME>x206</NAME>
	<OUTCOME>&apos;(-inf-12.755]&apos;</OUTCOME>
	<OUTCOME>&apos;(12.755-inf)&apos;</OUTCOME>
	<PROPERTY>position = (396,96)</PROPERTY>
</VARIABLE>
<VARIABLE TYPE="nature">
	<NAME>x388</NAME>
	<OUTCOME>&apos;All&apos;</OUTCOME>
	<PROPERTY>position = (440,96)</PROPERTY>
</VARIABLE>
<VARIABLE TYPE="nature">
	<NAME>x408</NAME>
	<OUTCOME>&apos;(-inf-1346]&apos;</OUTCOME>
	<OUTCOME>&apos;(1346-inf)&apos;</OUTCOME>
	<PROPERTY>position = (484,96)</PROPERTY>
</VARIABLE>
<VARIABLE TYPE="nature">
	<NAME>class</NAME>
	<OUTCOME>-1</OUTCOME>
	<OUTCOME>1</OUTCOME>
	<PROPERTY>position = (220,0)</PROPERTY>
</VARIABLE>
<DEFINITION>
<FOR>x34</FOR>
	<GIVEN>class</GIVEN>
<TABLE>
0.16290983606557377 0.8370901639344263 
0.023809523809523808 0.9761904761904762 
</TABLE>
</DEFINITION>
<DEFINITION>
<FOR>x39</FOR>
	<GIVEN>class</GIVEN>
<TABLE>
1.0 
1.0 
</TABLE>
</DEFINITION>
<DEFINITION>
<FOR>x60</FOR>
	<GIVEN>class</GIVEN>
<TABLE>
0.8049863387978142 0.1950136612021858 
0.4523809523809524 0.5476190476190477 
</TABLE>
</DEFINITION>
<DEFINITION>
<FOR>x65</FOR>
	<GIVEN>class</GIVEN>
<TABLE>
0.9634562841530054 0.036543715846994534 
0.8142857142857143 0.18571428571428572 
</TABLE>
</DEFINITION>
<DEFINITION>
<FOR>x104</FOR>
	<GIVEN>class</GIVEN>
<TABLE>
0.7462431693989071 0.2537568306010929 
0.4523809523809524 0.5476190476190477 
</TABLE>
</DEFINITION>
<DEFINITION>
<FOR>x107</FOR>
	<GIVEN>class</GIVEN>
<TABLE>
1.0 
1.0 
</TABLE>
</DEFINITION>
<DEFINITION>
<FOR>x122</FOR>
	<GIVEN>class</GIVEN>
<TABLE>
1.0 
1.0 
</TABLE>
</DEFINITION>
<DEFINITION>
<FOR>x131</FOR>
	<GIVEN>class</GIVEN>
<TABLE>
0.16905737704918034 0.8309426229508197 
0.023809523809523808 0.9761904761904762 
</TABLE>
</DEFINITION>
<DEFINITION>
<FOR>x132</FOR>
	<GIVEN>class</GIVEN>
<TABLE>
1.0 
1.0 
</TABLE>
</DEFINITION>
<DEFINITION>
<FOR>x206</FOR>
	<GIVEN>class</GIVEN>
<TABLE>
0.9122267759562842 0.08777322404371585 
0.7285714285714285 0.2714285714285714 
</TABLE>
</DEFINITION>
<DEFINITION>
<FOR>x388</FOR>
	<GIVEN>class</GIVEN>
<TABLE>
1.0 
1.0 
</TABLE>
</DEFINITION>
<DEFINITION>
<FOR>x408</FOR>
	<GIVEN>class</GIVEN>
<TABLE>
0.9907786885245902 0.009221311475409836 
0.9 0.1 
</TABLE>
</DEFINITION>
<DEFINITION>
<FOR>class</FOR>
<TABLE>
0.9333545918367347 0.06664540816326531 
</TABLE>
</DEFINITION>
</NETWORK>
</BIF>
